digraph Tree {
node [shape=box, style="filled, rounded", color="black", fontname=helvetica] ;
edge [fontname=helvetica] ;
0 [label="petal width (cm) <= 0.8\ngini = 0.67\nsamples = 93\nvalue = [49, 52, 49]\nclass = versicolor", fillcolor="#f9fefb"] ;
1 [label="gini = 0.0\nsamples = 31\nvalue = [49, 0, 0]\nclass = setosa", fillcolor="#e58139"] ;
0 -> 1 [labeldistance=2.5, labelangle=45, headlabel="True"] ;
2 [label="petal length (cm) <= 4.85\ngini = 0.5\nsamples = 62\nvalue = [0, 52, 49]\nclass = versicolor", fillcolor="#f4fef8"] ;
0 -> 2 [labeldistance=2.5, labelangle=-45, headlabel="False"] ;
3 [label="sepal width (cm) <= 2.95\ngini = 0.04\nsamples = 31\nvalue = [0, 50, 1]\nclass = versicolor", fillcolor="#3de684"] ;
2 -> 3 ;
4 [label="gini = 0.0\nsamples = 21\nvalue = [0, 37, 0]\nclass = versicolor", fillcolor="#39e581"] ;
3 -> 4 ;
5 [label="petal length (cm) <= 4.75\ngini = 0.13\nsamples = 10\nvalue = [0, 13, 1]\nclass = versicolor", fillcolor="#48e78b"] ;
3 -> 5 ;
6 [label="gini = 0.0\nsamples = 8\nvalue = [0, 12, 0]\nclass = versicolor", fillcolor="#39e581"] ;
5 -> 6 ;
7 [label="sepal width (cm) <= 3.1\ngini = 0.5\nsamples = 2\nvalue = [0, 1, 1]\nclass = versicolor", fillcolor="#ffffff"] ;
5 -> 7 ;
8 [label="gini = 0.0\nsamples = 1\nvalue = [0, 0, 1]\nclass = virginica", fillcolor="#8139e5"] ;
7 -> 8 ;
9 [label="gini = 0.0\nsamples = 1\nvalue = [0, 1, 0]\nclass = versicolor", fillcolor="#39e581"] ;
7 -> 9 ;
10 [label="petal length (cm) <= 5.05\ngini = 0.08\nsamples = 31\nvalue = [0, 2, 48]\nclass = virginica", fillcolor="#8641e6"] ;
2 -> 10 ;
11 [label="petal width (cm) <= 1.75\ngini = 0.35\nsamples = 6\nvalue = [0, 2, 7]\nclass = virginica", fillcolor="#a572ec"] ;
10 -> 11 ;
12 [label="sepal width (cm) <= 2.35\ngini = 0.44\nsamples = 3\nvalue = [0, 2, 1]\nclass = versicolor", fillcolor="#9cf2c0"] ;
11 -> 12 ;
13 [label="gini = 0.0\nsamples = 1\nvalue = [0, 0, 1]\nclass = virginica", fillcolor="#8139e5"] ;
12 -> 13 ;
14 [label="gini = 0.0\nsamples = 2\nvalue = [0, 2, 0]\nclass = versicolor", fillcolor="#39e581"] ;
12 -> 14 ;
15 [label="gini = 0.0\nsamples = 3\nvalue = [0, 0, 6]\nclass = virginica", fillcolor="#8139e5"] ;
11 -> 15 ;
16 [label="gini = 0.0\nsamples = 25\nvalue = [0, 0, 41]\nclass = virginica", fillcolor="#8139e5"] ;
10 -> 16 ;
}